{"weights_1": [[0.897779, -0.176105, -0.4015, -0.882119, 0.057554], [-0.499836, -0.340407, -0.266912, 0.778616, -0.576723], [-0.641122, -0.502758, 0.632426, -0.862418, -0.517278], [0.968433, 0.763703, -0.376632, -0.991601, 0.14568], [0.860327, 0.393936, 0.100483, 0.180232, 0.436421], [0.587889, -0.291868, 0.654359, -0.135461, 0.488455], [0.347434, -0.501516, 0.051713, 0.879766, -0.65911], [0.336788, 0.335248, 0.11314, -0.224782, 0.381292], [-0.701936, -0.425936, 0.281635, 0.238368, 0.421339], [0.486685, -0.614485, 0.066607, 0.632286, 0.65726]], "weights_2": [[-0.399529, 0.170079, -0.932987, -0.570293, -0.161529, -0.644469, -0.646966, -0.458105, 0.118962, -0.314116], [-0.247472, 0.770787, 0.576436, -0.298602, -0.270904, 0.485235, 0.010076, -0.801593, 0.060142, 0.472091], [-0.303259, -0.593586, 0.250806, -0.052738, 0.171114, -0.056142, -0.574382, -0.051981, -0.767459, -0.430109]], "biases_1": [[0.185158], [-0.023298], [-0.411097], [-0.709888], [-0.919293], [-0.307514], [-0.632221], [-0.633827], [0.313955], [-0.091311]], "biases_2": [[0.815706], [-0.050625], [-0.433814]]}