{
    "weights_1": [[-0.165822, -0.184748, 0.815794, 0.315069, 0.186146], 
                 [0.184484, 0.464891, -0.557413, -0.301966, -0.31792], 
                 [0.439984, -0.549081, -0.698173, 0.676385, 0.388602], 
                 [0.92191, 0.319787, 0.680171, -0.705023, -0.299249], 
                 [0.183393, 0.422677, -0.75688, 0.653381, -0.362105], 
                 [0.507558, 0.55974, 0.125225, -0.254593, -0.86488], 
                 [-0.407598, 0.25128, -0.684528, -0.359455, -0.044609], 
                 [0.413547, -0.278782, -0.902649, 0.076089, -0.654841], 
                 [-0.51616, 0.177231, -0.627929, -0.196038, 0.261336], 
                 [-0.898969, -0.72253, -0.970672, -0.219519, -0.635353]],
                 
    "weights_2": [[-0.734609, 0.323744, 0.830826, 0.513445, -0.719782, 0.545849, -0.878819, -0.717217, 0.251792, 0.146112], 
                 [0.891352, -0.781192, 0.871911, -0.694122, 0.54757, -0.228572, -0.620665, 0.312551, 0.572645, -0.782871], 
                 [0.074678, 0.193581, 0.019466, 0.450892, 0.477427, 0.748482, 0.163586, -0.999151, 0.390338, -0.700713]], 
                 
    "biases_1": [[0.217535], 
                 [0.904556], 
                 [-0.75993], 
                 [0.852956], 
                 [-0.075572], 
                 [-0.983425], 
                 [0.754193], 
                 [-0.04073], 
                 [-0.901714], 
                 [0.901124]], 
    
    "biases_2": [[0.481497], 
                 [0.814294], 
                 [-0.001007]]
    }
    