{"weights_1": [[0.091958, 0.09247, 0.582219, -0.528186, -0.964493], [0.952838, 0.572948, -0.086036, -0.217102, -0.252713], [0.167531, -0.663313, 0.506339, 0.505012, -0.197664], [0.071212, -0.986205, 0.092178, 0.872861, -0.559933], [-0.577106, 0.048998, 0.687938, -0.672623, -0.853517], [0.89905, -0.402903, 0.426126, 0.15606, 0.645334], [0.023169, -0.898919, 0.249231, 0.717447, -0.866915], [0.096433, -0.192721, 0.965225, -0.964298, 0.08281], [-0.000942, -0.99605, 0.522445, -0.253202, 0.829776], [-0.571321, 0.075701, 0.036083, 0.660221, 0.547763]], "weights_2": [[-0.498215, -0.374741, -0.35549, -0.001352, -0.412828, 0.408526, -0.362403, -0.631807, 0.100362, -0.289263], [0.811352, -0.546795, 0.512134, 0.193299, 0.851189, -0.91623, 0.446702, -0.414027, -0.74783, 0.886594], [0.045702, 0.167184, -0.513081, -0.638713, 0.609415, -0.583302, -0.128262, 0.748739, -0.752464, 0.58048]], "biases_1": [[-0.492009], [0.194281], [-0.110408], [-0.410629], [-0.662512], [0.846822], [0.163739], [0.492775], [-0.843329], [0.371784]], "biases_2": [[0.910302], [-0.456253], [0.683209]]}