{
    "weights_1": [
            [1.136976139744407, -0.1457806176730677, -0.24169935912883442, 0.020882822432876886, -0.22881547438108685], 
            [-0.28202432637190084, -1.0629237609264763, 0.34165220019170195, -1.3557092423543085, -0.28766297362117726], 
            [-0.711374, -0.880614, -0.505223, -0.551814, -0.110491], 
            [-0.7551473973003581, -1.2896242545133707, 0.4199909085040608, -1.2630898999778681, -1.3008798339768437], 
            [1.1661638667219734, -0.0347234240993545, -0.30424713268203646, -0.2901838209087613, 0.03922590225156869], 
            [-0.4281062062257379, 0.09179406833681339, -0.43415122529320793, 0.10309517171156957, 0.2834556769316024], 
            [0.08978029511925639, -0.40014460396691565, -0.2710212179302119, -0.02926122383408315, 1.1718103048575217], 
            [-0.28004850964982514, 0.01899864466404885, -0.22581773697305887, -0.1517600660862379, 1.1587592520853442], 
            [-0.32238599460289946, -0.6790924101815695, -0.9355975109680795, 0.31304619428098135, -0.4922234247110804], 
            [0.5718807981301188, -0.8118324035837325, 0.15531516285780947, -0.7959805316736094, 0.44301705839689404]
        ], 

    "weights_2": [
            [-0.20674695161925236, 0.9567391104905022, 0.46122, 1.6579107277731988, 0.08215533224592113, 0.09804935423369532, -0.43373297432083274, -0.3401709200795716, -0.03673399905805953, 0.2779272249054546], 
            [-0.11953416152528767, -0.09560154697812503, -0.963399, 0.04854409105519334, -0.01907655932454935, 0.25745457114776366, -0.2807004771675356, -0.49561248014247317, 0.21965731135337113, 0.1081179209631077], 
            [-0.3986008868554064, 0.09998143648766107, -0.503358, -0.5070708188281883, 0.27133922707862673, 0.2940370746186114, -0.5617435485114841, -0.27224059977786774, 0.06139268770468636, 0.09071485413148792]
        ], 

    "biases_1": [
            [-0.01876663371325114], 
            [-0.44809154405119617], 
            [0.025018], 
            [0.07138227290821939], 
            [0.3813934592072476], 
            [0.6768081752723144], 
            [0.45474967766270563], 
            [0.9056199350386149], 
            [-0.7667904315407312], 
            [0.41770306060248164]
        ], 

    "biases_2": [
            [0.5360147466714568], 
            [-0.23088416779790286], 
            [-0.2119145788733715]
        ]
}