{"weights_1": [[0.0919580000961793, 0.09247000016714901, 0.5822190003205899, -0.5281859998397894, -0.9644929998924752], [0.971421819253468, 0.5706654739366479, -0.07071226766412227, -0.1784776250146619, -0.25415088674370584], [0.1673405384022899, -0.6615322265062666, 0.4874444746779928, 0.4440467423768994, -0.055329479892771385], [0.048277399405830486, -1.0150968846805317, 0.043520588553054025, 0.8088660584352511, -0.5824550276893006], [-0.577106, 0.048998, 0.687938, -0.672623, -0.853517], [0.8502114093225681, -0.41778807831801523, 0.40961032239694617, 0.1742287885111507, 0.36931109930736583], [-0.010996036748930208, -0.9412616105215478, 0.17796462969101104, 0.6045569440294867, -0.8995417653789669], [0.09376237935534668, -0.20549038251283352, 0.93630005227433, -0.9817324240464882, 0.073474063000987], [-0.06230722045239345, -1.0559787967510423, 0.4578081659097276, -0.3301809679502586, 0.6312398755392439], [-0.5264530025254539, 0.08458264947419515, 0.03615190109797816, 0.6148577035318094, 0.8156565021157819]], "weights_2": [[-0.49821500004054486, -0.37131777578332376, -0.31206741312158454, 0.040064305465591796, -0.412828, 0.231570314051745, -0.33661351707391846, -0.6242478504255702, -0.03102790026210828, -0.3932048057788989], [0.811352, -0.55824645405515, 0.43652676547056257, 0.1366404269752384, 0.851189, -0.8080117300218561, 0.41170963947000827, -0.4121723349797129, -0.6202247873188088, 0.9520964558083169], [0.045702000040544845, 0.17521222983847373, -0.48089635234897804, -0.6234707324408302, 0.609415, -0.5145645840298889, -0.11905912239608978, 0.7393251854052832, -0.7486793124190829, 0.6189193499705816]], "biases_1": [[-0.4920089999988349], [0.19438958615923596], [-0.11040034892711507], [-0.4108560664817964], [-0.662512], [0.8464837999522724], [0.1633935976444163], [0.492658990236446], [-0.8438348397197007], [0.3720530404446445]], "biases_2": [[0.9100000886854775], [-0.4561530193928901], [0.6834109307074124]]}